{
  "layers": [
    {
      "activation": 1,
      "biases": [
        1.6571426174799129,
        2.77183544078135,
        -3.4885389080812215
      ],
      "cols": 3,
      "rows": 4,
      "weights": [
        [
          -3.9703806507719217,
          -1.5706044881141101,
          3.585023850879614
        ],
        [
          0.9551979535493779,
          -3.7645310658029767,
          -4.816851719770126
        ],
        [
          -4.199436849270939,
          -2.699933855182864,
          3.5451809848941114
        ],
        [
          0.7676446379536658,
          -3.2395178522984622,
          -4.162148102802534
        ]
      ]
    },
    {
      "activation": 1,
      "biases": [
        -1.1486991460521052,
        -1.4995187451292047,
        2.324789661495543,
        0.28620691995176845,
        -1.4517253234852612,
        0.06604595789245599,
        0.34986322902947137,
        -0.06453712825266505,
        -0.9116561425667006,
        -0.053135551117769415,
        -0.16387852605923486,
        -1.0182753011211083,
        -2.298913780857225,
        -1.8675308202683314,
        -0.4267375819820623,
        -0.7827318487555942,
        -1.8488702510068318,
        1.2600226566369372,
        -0.6838452876835281,
        0.3017870413635576,
        -1.942777484105735,
        0.14308358131509952,
        2.1127159901553307,
        0.03414955009967642,
        -0.7001594847903141,
        1.34734659403965,
        2.082405481694901,
        1.6936060806796949,
        3.089345373503704,
        -2.587232743814778
      ],
      "cols": 30,
      "rows": 3,
      "weights": [
        [
          -0.888087082125516,
          2.400578901975216,
          -1.3364740035047904,
          1.4681041924162235,
          0.44663941636017085,
          1.1773421069211325,
          -0.2283287307512431,
          0.2523572028097934,
          2.4963110735561305,
          -0.08059321649569666,
          -1.898064273826813,
          1.1147616080452087,
          3.6257111857373943,
          1.484193817769924,
          1.116823572092526,
          -0.01780338231797098,
          2.7438656493824207,
          -2.509380247194257,
          0.04462666948029714,
          -0.31318616660395604,
          2.425122554554172,
          -0.051403661715849674,
          -2.5851233154597937,
          1.8949995311349968,
          0.7480046701959037,
          -1.9693931467415298,
          -4.826967174242106,
          -1.992868205775905,
          -1.4296703346502542,
          1.6468813681789858
        ],
        [
          1.1179692044063416,
          -0.530416226112425,
          -2.073803317343618,
          -4.8931483905093875,
          1.9240496136068401,
          -0.9512182220900951,
          2.251127413724059,
          -0.8782074566547672,
          -0.44691746349360084,
          -4.386547724401818,
          0.5394953597412121,
          -0.5602905044492233,
          -1.9819548442670898,
          0.96453631975953,
          -1.4018229600389533,
          0.20341313239686548,
          -0.7848397676223882,
          -2.3215672804545058,
          -0.7503802284338122,
          0.6929790896908616,
          -1.3012642416214544,
          3.6937175796349537,
          0.8678470274731657,
          -1.3479685579126224,
          0.7519898989336905,
          0.40814115320882455,
          0.03338061275281658,
          -0.7987436749640635,
          0.1910052185165841,
          1.5073472327581412
        ],
        [
          1.8619449366756942,
          1.5006694478652747,
          -4.046531776105809,
          0.10280645245154789,
          0.7910031183484876,
          -0.929087247436291,
          -4.5158189776554085,
          -0.9040492590932224,
          -1.1734048343074737,
          2.939577887270556,
          1.937805236507939,
          2.5584229357383412,
          0.445326124390227,
          3.3204719614831317,
          -0.71617722707224,
          0.7860869690050554,
          0.8019894324276795,
          -0.7958971932714825,
          2.5721453397851475,
          -1.5600406860699048,
          0.5227442176379645,
          -1.3464440472766686,
          -0.892780907203617,
          2.9898815075363943,
          -1.4818810315066187,
          0.6246458841539202,
          -4.071297746943471,
          -2.09144018420808,
          -4.900263344416852,
          4.833945926699601
        ]
      ]
    }
  ]
}
